//Numpy array shape [3, 3, 8, 8]
//Min -0.202663272619
//Max 0.204037725925
//Number of zeros 0

#ifndef W22_H_
#define W22_H_

#ifndef __SYNTHESIS__
model_default_t w22[576];
#else
model_default_t w22[576] = {0.085656292736530, -0.166707739233971, -0.127345412969589, -0.183240368962288, -0.116379842162132, 0.059312351047993, 0.021226838231087, -0.074490949511528, 0.085051521658897, -0.052954357117414, 0.010707226581872, 0.091183565557003, 0.089708752930164, 0.040209893137217, 0.073027797043324, 0.067979209125042, 0.073537424206734, -0.058298297226429, 0.069087482988834, 0.137323290109634, -0.066918984055519, -0.168368548154831, -0.152573734521866, 0.182293877005577, 0.202220067381859, -0.031595900654793, 0.113585650920868, 0.181826606392860, -0.125945374369621, 0.165632843971252, 0.188963964581490, 0.194313138723373, -0.134343087673187, -0.091764070093632, -0.044232923537493, -0.038760628551245, 0.064232997596264, -0.064702831208706, -0.055648002773523, 0.126305952668190, -0.186055615544319, -0.001599183073267, -0.075773224234581, 0.182149887084961, 0.019689239561558, -0.179630935192108, -0.032519135624170, 0.055120483040810, 0.098416723310947, 0.102560512721539, 0.085344448685646, 0.140953868627548, 0.104233764111996, -0.082127079367638, 0.073604300618172, -0.129790917038918, 0.055206418037415, 0.074555352330208, 0.174313113093376, -0.107410423457623, 0.137034878134727, -0.167979449033737, -0.084010913968086, -0.182698234915733, 0.143188074231148, 0.171439155936241, 0.149770796298981, -0.165843904018402, 0.010831842198968, 0.172451749444008, -0.132481634616852, -0.194595068693161, 0.135832577943802, -0.133992806077003, -0.092519439756870, -0.118975751101971, -0.075901642441750, -0.171196579933167, 0.040985886007547, 0.147085428237915, -0.104387328028679, 0.060183096677065, -0.111570149660110, 0.107858777046204, -0.036318223923445, -0.014125096611679, 0.142005294561386, -0.144122987985611, 0.166013762354851, -0.101397648453712, 0.141670495271683, -0.028672430664301, -0.108291588723660, 0.123020790517330, -0.013877220451832, -0.021762788295746, -0.018000604584813, -0.066728658974171, -0.019647805020213, -0.030457664281130, 0.086439497768879, 0.160485044121742, 0.166564151644707, 0.121219091117382, 0.102905780076981, 0.153742715716362, -0.048717435449362, 0.019012916833162, 0.005499787628651, 0.088353872299194, -0.141322538256645, -0.164426147937775, 0.102534718811512, -0.066406004130840, -0.129009813070297, -0.169975399971008, 0.085823640227318, 0.201723888516426, -0.023320179432631, 0.109700143337250, -0.065211541950703, -0.133792906999588, -0.151713490486145, -0.078169614076614, 0.122624970972538, 0.120708450675011, -0.198310837149620, -0.018312659114599, -0.014088725671172, 0.203935787081718, 0.039521250873804, -0.084694534540176, 0.202888309955597, -0.037721525877714, 0.087714426219463, 0.090233370661736, 0.131844267249107, 0.120629362761974, -0.075116246938705, 0.160068705677986, 0.066682681441307, -0.027947597205639, -0.073605373501778, 0.202488124370575, 0.136053264141083, 0.026380093768239, -0.007056985516101, 0.168327376246452, 0.079879589378834, 0.161569863557816, 0.147281005978584, 0.173479542136192, -0.163889229297638, 0.151632219552994, -0.121938332915306, -0.008896254934371, 0.110204413533211, -0.010913951322436, -0.031177090480924, 0.038929317146540, 0.080095663666725, 0.154534518718719, -0.138514995574951, 0.132252931594849, 0.095891825854778, 0.136860445141792, -0.084983333945274, -0.009612091816962, 0.023826014250517, 0.116254843771458, -0.028603307902813, 0.183686703443527, 0.203562736511230, 0.139928817749023, 0.012526166625321, 0.171073600649834, 0.197423532605171, 0.196626484394073, 0.053087402135134, 0.013442010618746, 0.194994762539864, 0.166551068425179, -0.150787383317947, 0.094343535602093, -0.006897190585732, 0.127036139369011, 0.122264958918095, 0.034456524997950, 0.011801930144429, -0.044205207377672, 0.152023971080780, -0.001104622264393, -0.031415242701769, -0.106637492775917, 0.103227071464062, -0.096565142273903, 0.049865830689669, 0.134097099304199, -0.008112771436572, 0.095880024135113, -0.133762046694756, -0.048499420285225, -0.094231903553009, -0.118345879018307, 0.143172696232796, 0.020266236737370, -0.196498990058899, -0.046127464622259, -0.107569724321365, 0.193757891654968, -0.110021851956844, 0.129443079233170, -0.081720180809498, -0.162904515862465, -0.160715743899345, 0.015304544940591, 0.089982710778713, 0.151559084653854, -0.099408365786076, -0.054595611989498, -0.138186261057854, -0.150840491056442, -0.013246366754174, 0.002044698689133, -0.140215963125229, -0.035375285893679, 0.024734605103731, -0.106890678405762, -0.059266626834869, 0.088520474731922, 0.067149423062801, -0.139412239193916, -0.179412826895714, -0.156195715069771, 0.041863929480314, 0.085878446698189, -0.021762385964394, 0.136005252599716, 0.131935715675354, -0.106544047594070, -0.004118484910578, -0.124760925769806, 0.168553531169891, -0.179642602801323, 0.032850787043571, -0.139491185545921, -0.056708898395300, -0.057316634804010, 0.120163455605507, 0.064330905675888, 0.034880489110947, 0.111069411039352, 0.002039441373199, -0.129876479506493, 0.115964472293854, 0.083902679383755, -0.167395457625389, -0.120163217186928, -0.125404998660088, 0.176321223378181, 0.188484564423561, -0.017748543992639, 0.175673559308052, -0.056388832628727, 0.026539009064436, -0.063258439302444, 0.061512656509876, 0.013885634951293, -0.058710835874081, -0.146548077464104, 0.112691938877106, 0.054994691163301, 0.148920714855194, 0.139089345932007, -0.128073200583458, -0.197790846228600, 0.146417468786240, -0.102979704737663, -0.176466763019562, -0.025179436430335, 0.161423787474632, 0.128860428929329, 0.031469468027353, -0.066137351095676, 0.126101672649384, -0.183287605643272, 0.029561316594481, 0.035903450101614, -0.062730424106121, -0.058913778513670, 0.081331372261047, 0.039238151162863, 0.086847908794880, -0.085577987134457, -0.187196582555771, -0.019056882709265, 0.098980925977230, -0.058004442602396, 0.161075010895729, -0.117620714008808, -0.139033406972885, 0.061730999499559, -0.010045201517642, -0.015077624469995, 0.055792458355427, 0.154189586639404, -0.030443351715803, -0.060057707130909, 0.135710299015045, 0.180026724934578, -0.156182587146759, -0.085392944514751, 0.183930367231369, -0.000449998740805, -0.135602876543999, 0.184785678982735, -0.043701112270355, 0.024659689515829, 0.085968583822250, 0.026178462430835, -0.181301951408386, -0.202562019228935, -0.109715841710567, -0.006863337475806, 0.078679628670216, 0.079649209976196, 0.031490292400122, -0.091743588447571, 0.027746219187975, -0.130197718739510, 0.043854877352715, 0.124602347612381, 0.130616605281830, -0.029780358076096, -0.128742560744286, 0.065890245139599, -0.041966322809458, 0.101626470685005, 0.010495527647436, 0.057915467768908, -0.093970455229282, -0.029192995280027, -0.108016602694988, 0.053509429097176, -0.101837337017059, -0.169218629598618, -0.185342893004417, 0.133729696273804, 0.107070900499821, 0.036770306527615, 0.030211620032787, 0.002944294130430, 0.072888329625130, 0.077551849186420, 0.153461426496506, -0.174355044960976, 0.165119543671608, 0.184419572353363, -0.166767477989197, -0.008570306003094, 0.169972181320190, 0.132221832871437, -0.103467784821987, -0.188405930995941, 0.023152699694037, 0.077056959271431, 0.023223176598549, 0.103084385395050, 0.153089538216591, -0.143190085887909, 0.096022829413414, -0.105820879340172, 0.135099589824677, 0.040403198450804, -0.031794466078281, -0.160762384533882, 0.151768788695335, 0.169444173574448, -0.148911878466606, -0.072123132646084, -0.145192116498947, -0.151563435792923, -0.174423739314079, 0.047116510570049, -0.171722710132599, -0.025172153487802, -0.095697022974491, -0.123617827892303, -0.041991226375103, -0.038456857204437, 0.102948673069477, -0.128696069121361, -0.142658472061157, -0.047912504523993, -0.007380893919617, -0.199914932250977, 0.044320721179247, -0.174451559782028, 0.030140072107315, 0.100148893892765, 0.143827244639397, -0.198534786701202, 0.024074336513877, 0.004424104001373, -0.176545381546021, -0.180252775549889, -0.089277938008308, 0.141248941421509, 0.106167264282703, 0.032951723784208, 0.095859237015247, 0.092439517378807, -0.027541967108846, 0.114765524864197, -0.097767598927021, 0.185092732310295, -0.159544035792351, 0.133363366127014, 0.171825766563416, -0.175418823957443, 0.021338272839785, -0.199150860309601, 0.188434466719627, 0.147219538688660, -0.077316276729107, -0.153061389923096, 0.082229517400265, -0.106141187250614, -0.148437902331352, 0.065606020390987, 0.021184315904975, 0.106236137449741, -0.187664613127708, -0.069592349231243, -0.177880913019180, -0.044451728463173, 0.101407624781132, -0.200056716799736, -0.114491097629070, 0.050920899957418, 0.067080587148666, 0.052431542426348, 0.004566279239953, 0.015129528939724, -0.165486529469490, 0.105755157768726, -0.051962539553642, -0.167966723442078, -0.158300533890724, -0.140424013137817, -0.171125918626785, 0.039003696292639, 0.123618207871914, 0.172990784049034, -0.041764840483665, 0.023779502138495, 0.174677848815918, -0.190867245197296, -0.121039323508739, 0.024382771924138, 0.113984920084476, -0.142962083220482, -0.082412220537663, 0.075373761355877, 0.106945164501667, 0.070230096578598, 0.052076861262321, -0.187516108155251, -0.129088670015335, -0.059515483677387, -0.005327631253749, -0.099157370626926, 0.121496088802814, 0.200974375009537, -0.183069005608559, -0.081336341798306, 0.004359897226095, -0.175553649663925, -0.174039363861084, -0.152374356985092, -0.038677729666233, -0.099880240857601, 0.140340477228165, -0.120477646589279, -0.128463461995125, -0.018203502520919, -0.156820863485336, 0.126309171319008, -0.108204618096352, 0.050340194255114, -0.010261904448271, 0.160403981804848, 0.196898356080055, 0.120555281639099, -0.202131152153015, -0.018047699704766, -0.181100130081177, 0.022234665229917, -0.186422616243362, -0.009879419580102, -0.150308832526207, -0.193963363766670, -0.113797396421432, 0.129990458488464, -0.195905849337578, -0.154967397451401, 0.063829347491264, 0.076389960944653, 0.153290152549744, 0.176955193281174, -0.067600972950459, 0.113192632794380, 0.072073020040989, 0.079823739826679, -0.091311253607273, 0.010951707139611, 0.102302469313145, -0.187960937619209, -0.080841057002544, 0.057410273700953, 0.150366187095642, -0.042933385819197, -0.055653247982264, -0.090389721095562, 0.054185125976801, -0.035608433187008, -0.035279504954815, -0.041936550289392, -0.195187151432037, 0.033531296998262, -0.143855899572372, 0.051927477121353, 0.098935559391975, 0.141903132200241, -0.023419594392180, 0.201750695705414, 0.015064100734890, 0.181207373738289, -0.092237360775471, -0.179103448987007, -0.053970701992512, 0.075929716229439, -0.128493040800095, 0.121305093169212, 0.112748026847839, -0.157954677939415, -0.013785534538329, -0.048162870109081, 0.173485547304153, -0.188631281256676, 0.089898861944675, 0.015569846145809, -0.114162608981133, 0.085564523935318, 0.036815404891968, -0.132029935717583, -0.007081544958055, -0.113714464008808, 0.197491243481636, -0.121094338595867, 0.128973007202148, -0.167025282979012, -0.077472895383835, -0.125589832663536, 0.098558872938156, 0.086057826876640, -0.195042297244072, 0.057671479880810, -0.097583040595055, 0.154812082648277, -0.133809581398964, -0.098444551229477, -0.134610638022423, -0.132724404335022, 0.034664425998926, 0.094396762549877};
#endif

#endif
