//Numpy array shape [3, 3, 8, 18]
//Min -0.159032523632
//Max 0.160114437342
//Number of zeros 0

#ifndef W48_H_
#define W48_H_

#ifndef __SYNTHESIS__
model_default_t w48[1296];
#else
model_default_t w48[1296] = {-0.075929597020149, -0.053771823644638, -0.116005539894104, 0.057937711477280, -0.114407964050770, 0.096889168024063, 0.051384806632996, -0.106460317969322, -0.097795471549034, 0.081613779067993, 0.055767208337784, 0.122276663780212, 0.060036838054657, 0.131354063749313, 0.072592467069626, 0.009785547852516, -0.045880906283855, -0.004452332854271, -0.134899824857712, 0.006734207272530, -0.028609320521355, -0.013402640819550, 0.104268401861191, 0.056698247790337, -0.006181553006172, 0.121502429246902, -0.121898472309113, 0.044151201844215, 0.153392612934113, -0.143003001809120, 0.038453236222267, 0.012539982795715, -0.027411535382271, 0.024252429604530, -0.010176867246628, -0.073944829404354, -0.030839696526527, -0.003536045551300, -0.132994726300240, -0.080738097429276, -0.043889686465263, -0.117570281028748, -0.002489969134331, 0.111257791519165, 0.132303804159164, 0.080320402979851, 0.109037965536118, -0.127308145165443, -0.103555694222450, 0.103076249361038, -0.032644346356392, -0.058765210211277, 0.076276481151581, -0.070905745029449, -0.136323615908623, 0.112121790647507, -0.129965573549271, 0.010961830615997, -0.157920956611633, -0.109044745564461, -0.072563260793686, -0.088341377675533, -0.064670547842979, 0.042377278208733, 0.093915939331055, -0.073433555662632, 0.152948439121246, -0.099936127662659, -0.080398887395859, -0.025203540921211, -0.056672208011150, -0.013504460453987, -0.011517122387886, 0.069350928068161, 0.103740215301514, -0.082758530974388, -0.153083130717278, -0.081157937645912, -0.080642230808735, 0.035829067230225, -0.061922952532768, 0.020987331867218, 0.142220258712769, 0.138685554265976, -0.133120030164719, -0.051320672035217, 0.155171334743500, 0.054532393813133, -0.038664594292641, -0.037287108600140, 0.130880266427994, -0.117154002189636, 0.143753498792648, 0.050219818949699, -0.086399555206299, -0.110512867569923, -0.005805730819702, -0.055685818195343, -0.097238689661026, 0.092278122901917, 0.002569004893303, -0.130340903997421, 0.019270867109299, 0.138524860143661, -0.057097807526588, 0.139139622449875, 0.105886161327362, 0.063895165920258, -0.056692518293858, 0.134629100561142, 0.128814548254013, -0.148190870881081, -0.145238563418388, 0.123721361160278, 0.115603595972061, 0.148543506860733, 0.039866074919701, 0.048620104789734, 0.009124547243118, -0.133866325020790, 0.112280607223511, -0.152326956391335, -0.079712346196175, 0.152058988809586, -0.039397753775120, -0.091882653534412, 0.082707211375237, 0.081134840846062, 0.122406870126724, 0.144771605730057, -0.052616722881794, -0.132415354251862, 0.099583595991135, 0.084706187248230, -0.065566271543503, 0.133512139320374, -0.034765332937241, 0.122513175010681, -0.153662890195847, 0.154765129089355, 0.065448150038719, -0.046702682971954, -0.087215639650822, -0.047538347542286, 0.040555074810982, -0.144606888294220, 0.086753010749817, 0.009239539504051, 0.107266366481781, 0.153196036815643, 0.097711950540543, 0.056455165147781, -0.093085169792175, 0.038224712014198, -0.076812990009785, -0.067568644881248, -0.052046582102776, -0.015797331929207, -0.129147082567215, -0.027360692620277, 0.110608190298080, -0.135312527418137, -0.148788735270500, -0.099904969334602, 0.043716207146645, -0.088708303868771, -0.072777584195137, 0.127830117940903, 0.070352241396904, 0.129214644432068, 0.018836140632629, -0.091944195330143, 0.131395161151886, -0.149572938680649, -0.109720796346664, 0.088217526674271, 0.069225892424583, -0.123110644519329, 0.088099792599678, 0.088282555341721, -0.150830775499344, 0.046110123395920, 0.155688315629959, 0.000866740942001, 0.125414729118347, -0.010781943798065, -0.114186003804207, -0.054861292243004, -0.051233090460300, 0.131658256053925, 0.117530643939972, -0.052460841834545, 0.078109800815582, -0.079504005610943, -0.018010392785072, 0.045103847980499, -0.021535143256187, -0.012162864208221, 0.041731387376785, 0.028125539422035, -0.011739164590836, 0.052409037947655, 0.151573330163956, 0.154730409383774, -0.096623115241528, -0.001399353146553, -0.055263914167881, -0.063164144754410, -0.044929258525372, -0.147909194231033, -0.123453408479691, -0.044106110930443, 0.005017742514610, 0.023811697959900, -0.052958868443966, -0.089441239833832, 0.058001428842545, 0.006648272275925, 0.116111069917679, -0.011009782552719, 0.032305255532265, -0.080401979386806, 0.005077451467514, -0.152864307165146, -0.073277711868286, 0.127199411392212, -0.075804874300957, -0.141809999942780, -0.015577614307404, 0.057795196771622, 0.126414835453033, 0.126733869314194, -0.070396184921265, 0.135355740785599, 0.108100891113281, -0.042149819433689, 0.097670257091522, -0.157139196991920, 0.123194098472595, -0.063745699822903, 0.118464827537537, 0.125361204147339, 0.024891138076782, 0.125006169080734, 0.049823537468910, 0.080199152231216, 0.155565589666367, 0.117762088775635, 0.146258950233459, -0.156156569719315, -0.144106522202492, 0.042860001325607, 0.063153713941574, 0.059659183025360, 0.029729872941971, -0.021114379167557, 0.136741966009140, 0.109585106372833, 0.111320465803146, 0.025142878293991, -0.081558153033257, -0.101447761058807, -0.084608614444733, -0.121091969311237, 0.016366973519325, -0.080366708338261, 0.140402406454086, -0.074872009456158, -0.091753803193569, -0.059193797409534, 0.101853698492050, -0.017742544412613, 0.005385175347328, -0.083802722394466, -0.028148129582405, 0.037705957889557, -0.064295575022697, 0.052249729633331, -0.068192884325981, -0.085064105689526, -0.049442984163761, -0.041308276355267, 0.028778836131096, -0.054758980870247, 0.079024121165276, 0.029014959931374, -0.075408212840557, -0.043354973196983, -0.043128386139870, -0.125277251005173, 0.102611631155014, -0.047219835221767, 0.096737116575241, -0.056096680462360, 0.085712403059006, -0.032233253121376, -0.045243956148624, 0.088660389184952, 0.159394383430481, 0.030448287725449, -0.106356710195541, 0.106176018714905, 0.160114437341690, -0.097056396305561, -0.017543494701385, 0.157576590776443, -0.144402667880058, -0.036691427230835, 0.021996363997459, 0.035542890429497, -0.107686541974545, 0.117128580808640, -0.096752576529980, -0.083121597766876, 0.085914015769958, -0.081229291856289, -0.106055870652199, 0.088097617030144, -0.004029065370560, -0.046364158391953, 0.010479390621185, 0.096313983201981, 0.112260669469833, -0.107307784259319, -0.093680739402771, 0.078769505023956, 0.058587193489075, -0.018069073557854, 0.060420364141464, 0.024609997868538, -0.121811956167221, -0.058079965412617, 0.124138504266739, -0.051498048007488, -0.046554781496525, 0.147601723670959, 0.125107645988464, -0.146241262555122, 0.128513455390930, -0.151711985468864, 0.135939747095108, 0.070180103182793, 0.073572024703026, -0.011838808655739, -0.003743082284927, -0.053964160382748, -0.155026674270630, -0.112514741718769, 0.002619430422783, -0.041195802390575, -0.093777135014534, 0.146615415811539, -0.038340501487255, 0.108995527029037, 0.149052888154984, 0.135238379240036, -0.153642579913139, 0.017845556139946, 0.118092626333237, -0.141629874706268, -0.138219937682152, -0.051087252795696, 0.003071874380112, -0.001343548297882, 0.038302332162857, -0.087595738470554, 0.053604602813721, 0.013824999332428, -0.056313604116440, -0.082122452557087, -0.072854511439800, -0.081470876932144, -0.014643415808678, -0.087656743824482, 0.090444147586823, 0.141359388828278, 0.117030292749405, -0.132591769099236, 0.034030869603157, 0.041473314166069, -0.119746401906013, -0.144702896475792, 0.002337917685509, -0.024525508284569, 0.020043238997459, 0.120307892560959, -0.024371355772018, -0.100194588303566, 0.064951151609421, -0.002513155341148, 0.054046973586082, 0.056786969304085, 0.018519416451454, -0.108590245246887, 0.058479145169258, 0.079300478100777, 0.087519377470016, -0.104312375187874, -0.056350030004978, -0.106249503791332, 0.086041986942291, -0.027998104691505, -0.091484494507313, -0.042633987963200, -0.127458870410919, 0.110016435384750, -0.004590809345245, 0.143916875123978, -0.012776792049408, 0.021591752767563, 0.111925780773163, -0.033615380525589, 0.139900237321854, 0.157815575599670, 0.148449033498764, -0.136906251311302, -0.030418828129768, -0.011318340897560, 0.036910265684128, 0.113575458526611, -0.117307089269161, 0.101578861474991, 0.099281609058380, 0.106574058532715, 0.066617533564568, 0.083331301808357, 0.031167060136795, 0.133949488401413, 0.003001749515533, -0.139199957251549, 0.086483433842659, 0.155407071113586, -0.079279676079750, -0.062212683260441, 0.066580489277840, -0.083591908216476, -0.005015611648560, -0.008665427565575, 0.088727235794067, -0.055970653891563, -0.068778298795223, -0.003648772835732, 0.030972555279732, -0.061398588120937, -0.108892075717449, 0.050214141607285, -0.027144715189934, -0.103373363614082, 0.066754430532455, -0.079040341079235, 0.117430299520493, -0.087219879031181, 0.096312493085861, 0.135217130184174, 0.016263589262962, -0.154426261782646, -0.071684487164021, 0.098762899637222, 0.133698761463165, -0.134987786412239, 0.142684847116470, 0.082692369818687, 0.041654318571091, 0.093970119953156, 0.048148348927498, 0.142130762338638, -0.001964837312698, 0.023286953568459, 0.025121763348579, -0.069900341331959, -0.151387408375740, -0.096646673977375, 0.159062504768372, -0.091502785682678, 0.022333934903145, 0.117927312850952, -0.133784890174866, -0.134250879287720, -0.142934978008270, -0.030765861272812, 0.030335560441017, -0.105709746479988, 0.143154382705688, 0.059897184371948, 0.024987846612930, 0.068311884999275, 0.042944982647896, 0.092035174369812, 0.046704277396202, 0.110041588544846, -0.042029216885567, 0.053520724177361, -0.035220675170422, -0.072229437530041, 0.109632074832916, 0.127302527427673, 0.135074079036713, 0.008402034640312, 0.072624042630196, -0.074750103056431, 0.156341195106506, -0.152846470475197, -0.095243684947491, -0.074416317045689, 0.033998310565948, 0.091169118881226, -0.081354551017284, 0.065167427062988, -0.147750303149223, 0.083669260144234, -0.020925298333168, -0.067166827619076, 0.071879342198372, -0.118922039866447, 0.088856965303421, 0.024034351110458, 0.100324779748917, -0.091650873422623, -0.103366911411285, 0.127287417650223, 0.137592971324921, -0.091270439326763, 0.040612444281578, 0.092613726854324, -0.007281899452209, 0.029373526573181, -0.082019567489624, -0.098677106201649, -0.069377876818180, -0.094685874879360, 0.133895158767700, 0.136977553367615, 0.111270040273666, 0.054459139704704, -0.146128416061401, -0.118619211018085, 0.103477239608765, -0.007391735911369, -0.133882313966751, -0.109294578433037, -0.058991566300392, -0.108167499303818, -0.084972634911537, 0.029243066906929, -0.129379928112030, 0.034364730119705, 0.035875260829926, -0.075137071311474, -0.062094867229462, -0.097314126789570, 0.059741139411926, 0.150641411542892, -0.093046262860298, -0.054641276597977, -0.151651024818420, -0.039512589573860, 0.090184867382050, -0.056190177798271, -0.036351263523102, -0.047285005450249, 0.091554373502731, -0.077758759260178, 0.057806238532066, -0.099382400512695, 0.089937508106232, 0.032389357686043, 0.072813436388969, 0.021138086915016, -0.097325623035431, 0.015485495328903, -0.048326104879379, 0.123212993144989, 0.019991278648376, 0.043466031551361, 0.031544640660286, 0.028478756546974, -0.092699803411961, -0.088220357894897, -0.149047315120697, 0.095340400934219, -0.080183833837509, -0.144924104213715, -0.119646757841110, -0.120124623179436, 0.080796390771866, -0.079380735754967, 0.143301904201508, -0.108104974031448, 0.030802816152573, -0.065741240978241, -0.155698522925377, -0.061129316687584, -0.034033849835396, 0.046673819422722, 0.074255704879761, 0.010524213314056, -0.099967658519745, 0.016225442290306, 0.068904966115952, 0.066715002059937, -0.070177428424358, 0.084967792034149, -0.037681214511395, -0.083894692361355, -0.051136083900928, 0.086384549736977, -0.123377390205860, -0.034245550632477, 0.089930444955826, -0.025140583515167, 0.064830973744392, 0.071659132838249, -0.003004640340805, -0.044396340847015, -0.001253411173820, 0.154999911785126, -0.060480304062366, 0.105671942234039, 0.027721539139748, -0.152097463607788, 0.056835830211639, -0.146455898880959, -0.010294109582901, 0.033921986818314, -0.130916193127632, 0.082448527216911, 0.019495576620102, 0.119804352521896, -0.035843469202518, 0.129142999649048, 0.010545402765274, -0.125676870346069, 0.052570715546608, -0.086183167994022, 0.030926436185837, 0.113693743944168, 0.062455952167511, 0.157971233129501, -0.017636105418205, -0.041577346622944, 0.094514727592468, 0.068843126296997, -0.157187297940254, 0.152345478534698, -0.153157114982605, 0.126729071140289, -0.034391000866890, 0.091717332601547, -0.156748443841934, -0.005987957119942, -0.156834498047829, 0.041176751255989, 0.131742805242538, 0.132662177085876, 0.008141353726387, 0.113146245479584, -0.124245926737785, -0.116621837019920, 0.084059923887253, -0.041492477059364, -0.038039058446884, 0.070929527282715, -0.045252129435539, 0.024180769920349, 0.028437376022339, -0.133238494396210, 0.026233270764351, 0.072051912546158, 0.040405109524727, 0.012261092662811, 0.078083500266075, -0.034948617219925, 0.055395737290382, -0.009602949023247, 0.120883971452713, 0.127729654312134, -0.148978099226952, 0.122255533933640, 0.121048420667648, -0.091228559613228, 0.007592901587486, -0.151439666748047, 0.090827643871307, -0.051261611282825, -0.088974744081497, -0.040116712450981, 0.128827959299088, -0.053112916648388, -0.100407958030701, -0.088632598519325, 0.011626809835434, 0.070235148072243, 0.086952865123749, 0.054106831550598, -0.113240569829941, -0.011391073465347, -0.109813109040260, 0.023428216576576, 0.139706641435623, -0.025055304169655, -0.016880154609680, 0.109714776277542, -0.069039203226566, -0.082175865769386, -0.086739450693130, 0.094685375690460, -0.129293501377106, 0.019118085503578, 0.010028019547462, 0.068080186843872, 0.150741904973984, -0.080292873084545, -0.051211982965469, -0.043231196701527, -0.130152642726898, -0.073061287403107, -0.126647904515266, -0.070453949272633, -0.151623412966728, -0.109258353710175, -0.085728399455547, 0.021334141492844, 0.056970447301865, -0.081070125102997, 0.078871905803680, 0.119621753692627, 0.121760874986649, 0.031793206930161, -0.105688214302063, -0.082786284387112, -0.019144356250763, -0.116525590419769, -0.135582670569420, 0.115159690380096, -0.058283448219299, 0.151587992906570, -0.030433401465416, -0.094013340771198, 0.048288390040398, 0.118615418672562, 0.138593316078186, -0.001628160476685, -0.128408610820770, -0.139581352472305, -0.048171482980251, 0.028338372707367, -0.082713633775711, 0.042158901691437, 0.036607787013054, -0.056493081152439, 0.066991776227951, -0.095254488289356, -0.153499498963356, 0.112323790788651, 0.080687284469604, -0.057973943650723, 0.024087876081467, 0.100839585065842, -0.137973427772522, 0.064793139696121, 0.115131348371506, 0.146065175533295, -0.011855453252792, -0.117508709430695, -0.105182021856308, -0.072020299732685, 0.105189919471741, 0.017592668533325, 0.108517557382584, -0.034828752279282, -0.142282098531723, 0.086832910776138, -0.077249206602573, 0.029357224702835, 0.039844006299973, 0.087658151984215, -0.093626298010349, -0.031438693404198, 0.140155076980591, 0.111323565244675, -0.010500535368919, -0.103489458560944, 0.121553093194962, -0.083022907376289, -0.154334053397179, -0.145285293459892, -0.141602694988251, -0.127168610692024, 0.059162303805351, 0.086715936660767, -0.022209882736206, 0.033516466617584, -0.115337893366814, 0.132125079631805, -0.006981104612350, 0.074500232934952, -0.037414774298668, 0.101112246513367, 0.087572142481804, 0.074869722127914, 0.015104591846466, -0.128287136554718, -0.030910089612007, 0.097351402044296, -0.138578534126282, -0.027991920709610, -0.076431669294834, 0.055681079626083, -0.122879557311535, 0.147293925285339, -0.138280406594276, 0.101936638355255, -0.031952142715454, -0.139560386538506, 0.104179888963699, -0.078651845455170, -0.109427094459534, 0.033002674579620, -0.028053268790245, 0.133973598480225, -0.074552498757839, -0.134796440601349, 0.017730027437210, 0.126766294240952, 0.057659894227982, -0.053276740014553, 0.057418495416641, 0.154621481895447, -0.082955904304981, -0.089946709573269, 0.095825821161270, 0.127635717391968, 0.069777935743332, -0.018678128719330, 0.080335050821304, 0.005005493760109, -0.012509331107140, -0.080427370965481, -0.112294301390648, -0.053029380738735, -0.056085914373398, 0.071004778146744, 0.003591582179070, -0.135373070836067, 0.086599767208099, -0.118541978299618, 0.019576400518417, -0.157417386770248, -0.129551380872726, -0.148620754480362, -0.028780400753021, -0.159032523632050, -0.111932918429375, -0.079419218003750, 0.015172734856606, -0.066137179732323, 0.062962874770164, 0.063285961747169, 0.006549850106239, 0.068959191441536, -0.047989800572395, 0.037969082593918, -0.118918523192406, 0.035078957676888, 0.102605104446411, 0.158682286739349, 0.079774156212807, -0.054089844226837, -0.132772117853165, 0.132539808750153, -0.070395916700363, 0.028182685375214, -0.100698113441467, -0.126220732927322, 0.096009284257889, -0.103947356343269, -0.027581691741943, 0.138338178396225, 0.004083424806595, 0.075256600975990, -0.005500733852386, 0.145215779542923, 0.139047861099243, -0.110823020339012, -0.107726134359837, -0.137962162494659, -0.026410907506943, 0.086100518703461, 0.158086538314819, 0.134573459625244, -0.035566717386246, -0.084794379770756, -0.079719066619873, -0.028948485851288, -0.004479527473450, 0.079994976520538, 0.080965667963028, 0.005455031991005, -0.060248903930187, -0.116285264492035, -0.137704685330391, -0.118599548935890, -0.001715883612633, 0.109171181917191, 0.121770352125168, -0.069301754236221, -0.155454337596893, 0.157908618450165, 0.097655236721039, -0.015313804149628, 0.046759486198425, 0.019078880548477, 0.088971003890038, -0.067788891494274, -0.111186392605305, 0.039975985884666, 0.122877448797226, -0.119496911764145, 0.005926147103310, 0.142673999071121, -0.000038295984268, 0.082282304763794, -0.079732462763786, -0.078510709106922, 0.009871870279312, -0.147864267230034, -0.142947539687157, -0.016886726021767, -0.019307330250740, -0.067470259964466, -0.097198031842709, 0.127622693777084, 0.113685727119446, -0.054079189896584, -0.148657485842705, 0.014600262045860, 0.101466923952103, 0.059075132012367, -0.124036490917206, -0.146385580301285, -0.135604694485664, -0.042523503303528, 0.042111605405807, -0.065880820155144, 0.109136551618576, 0.083936035633087, -0.019522070884705, 0.076450765132904, -0.050799131393433, -0.048907585442066, -0.035731449723244, -0.115697525441647, -0.060779422521591, -0.047977313399315, -0.142215594649315, 0.047299548983574, 0.125341773033142, 0.079436019062996, 0.131147116422653, -0.115638658404350, -0.122589066624641, -0.071543991565704, -0.088849030435085, -0.129528969526291, -0.135490432381630, 0.017445489764214, -0.102147519588470, -0.052891217172146, -0.106429666280746, 0.146476387977600, 0.157731920480728, 0.072671189904213, 0.154965937137604, 0.084253638982773, -0.158357739448547, 0.057789698243141, -0.080162875354290, 0.150960952043533, 0.076816126704216, 0.007863879203796, -0.065027661621571, -0.011721685528755, 0.137211084365845, 0.123141497373581, 0.112783044576645, -0.153372213244438, 0.067550390958786, -0.105243183672428, -0.019034475088120, -0.126743078231812, 0.037760362029076, -0.153181359171867, -0.028573274612427, -0.149666130542755, 0.150824695825577, 0.022359699010849, 0.089416414499283, -0.073748059570789, -0.118678346276283, 0.024722769856453, 0.119116812944412, 0.004631549119949, 0.027149528264999, 0.132222205400467, -0.123241595923901, -0.015630751848221, 0.107308387756348, -0.028600469231606, 0.109400331974030, 0.089606925845146, -0.135961130261421, 0.142684429883957, -0.132300049066544, 0.124564975500107, -0.038466036319733, 0.037372663617134, 0.138263493776321, -0.133761033415794, 0.031922295689583, 0.090689003467560, -0.014443665742874, 0.017996355891228, -0.035075604915619, 0.013609901070595, 0.002234995365143, 0.050040125846863, -0.082326285541058, -0.158214807510376, -0.118972927331924, 0.027085423469543, 0.148101001977921, -0.002632185816765, -0.143254488706589, 0.051153108477592, -0.116510897874832, -0.141886040568352, -0.143218904733658, -0.042102940380573, 0.011503040790558, 0.128722369670868, 0.075514644384384, -0.114384755492210, 0.155594646930695, 0.097628831863403, -0.099006846547127, 0.114374130964279, -0.032312124967575, -0.080623030662537, 0.056013077497482, 0.061536371707916, 0.118326127529144, -0.111619055271149, -0.028468251228333, -0.059095986187458, -0.123648986220360, 0.135929703712463, -0.029331594705582, -0.144283831119537, 0.158053606748581, -0.041835501790047, 0.125336766242981, 0.007885068655014, 0.132518500089645, 0.091788530349731, -0.131581515073776, -0.148217260837555, 0.152500152587891, -0.095395058393478, -0.126016870141029, -0.109732434153557, -0.123972959816456, -0.132908254861832, -0.004811510443687, -0.152324244379997, 0.139774918556213, 0.055103257298470, 0.158126115798950, 0.063720270991325, 0.058509543538094, -0.040692351758480, -0.076158814132214, -0.094128482043743, 0.059203609824181, 0.010162785649300, 0.071133166551590, -0.119854331016541, 0.011539578437805, 0.060173004865646, 0.006134063005447, 0.063563898205757, -0.145216420292854, -0.143088221549988, -0.061297684907913, -0.069940656423569, -0.094697140157223, -0.123288512229919, -0.009907066822052, 0.148218065500259, 0.081291362643242, 0.066787034273148, -0.097790017724037, -0.136238783597946, -0.081347145140171, -0.098605558276176, -0.080278553068638, 0.070928573608398, -0.003472238779068, -0.116558462381363, 0.059174865484238, 0.128791511058807, -0.029392883181572, 0.009915918111801, -0.146112978458405, -0.065079279243946, 0.042532399296761, -0.030784144997597, 0.020660683512688, -0.157490611076355, -0.099068924784660, 0.149875074625015, 0.025173038244247, 0.093667715787888, -0.065320983529091, -0.059205785393715, 0.005309239029884, -0.013045832514763, 0.139130592346191, -0.137652501463890, -0.130357623100281, 0.041067749261856, -0.153441816568375, -0.012701898813248, -0.155216798186302, 0.119148552417755, 0.118122071027756, 0.049316614866257, 0.114499062299728, -0.122531831264496, -0.102296948432922, -0.134975641965866, -0.061644755303860, 0.112568408250809, 0.042047128081322, -0.080877520143986, -0.109876863658428, 0.072742655873299, 0.051583454012871, 0.084013998508453, 0.098949342966080, -0.040834262967110, 0.097745656967163, -0.093161866068840, 0.107675611972809, 0.004488870501518, 0.145970493555069, 0.114367455244064, 0.059061363339424, -0.085650250315666, 0.054814293980598, -0.106307305395603, -0.146286994218826, -0.064703688025475, 0.109495699405670, -0.150068476796150, 0.056329637765884, 0.025429740548134, 0.093754827976227, -0.042730651795864, 0.021893590688705, -0.048018962144852, -0.062057450413704, 0.129409402608871, -0.106266036629677, -0.145403265953064, -0.036272317171097, 0.035146728157997, 0.032470479607582, -0.135481610894203, -0.003111958503723, -0.002998650074005, 0.145100355148315, -0.077731505036354, -0.137862816452980, 0.102971136569977, 0.142098307609558, 0.027734637260437, 0.145710468292236, -0.061157301068306, -0.049894325435162, -0.127044990658760, 0.002621263265610, -0.026731133460999, -0.125856295228004, -0.001170977950096, -0.135931581258774, 0.106197506189346, -0.092822313308716, 0.117663174867630, -0.027187824249268, -0.047746643424034, -0.073640324175358, 0.034333780407906, 0.015645757317543, 0.008768424391747, -0.135208487510681, 0.057968378067017, -0.157767176628113, 0.159200429916382, -0.072228595614433, 0.104982137680054, 0.025900244712830, -0.077977865934372, 0.071366891264915, 0.038622483611107, -0.132635742425919, -0.145763933658600, 0.123325139284134, 0.096486598253250, 0.015615224838257, -0.111603140830994, -0.125716328620911, 0.010582849383354, -0.061706833541393, 0.138745456933975, -0.042757987976074, 0.133571237325668, 0.149856328964233, 0.073169365525246, 0.073431000113487, -0.124597847461700, -0.132300585508347, -0.110768228769302, -0.087893597781658, -0.154243841767311, 0.097973793745041, -0.081147782504559, 0.129929572343826, 0.063535720109940, 0.090143412351608, 0.101860910654068, -0.049073353409767, 0.055980280041695, 0.054673001170158, -0.123604662716389, -0.015901401638985, 0.021047502756119, -0.037341363728046, 0.133927792310715, -0.119751706719398, 0.115020394325256, 0.066962316632271, -0.007047489285469, -0.019121214747429, -0.141097903251648, -0.122280590236187, 0.009039476513863, 0.016663342714310, 0.101626992225647, 0.080547213554382, 0.109019130468369, 0.112058848142624, 0.014888852834702, 0.041621059179306, -0.028849765658379, 0.014463484287262, -0.053596280515194, 0.012904390692711, -0.117374047636986, -0.120274893939495, 0.071056127548218, 0.140181005001068, -0.114704832434654, 0.013906970620155, 0.117717117071152, -0.131627708673477, 0.029145598411560, -0.009020388126373, -0.045225977897644, 0.022795647382736, 0.037831872701645, -0.136621937155724, 0.082067400217056, 0.111938148736954, -0.007283508777618, -0.035746075212955, 0.145108610391617, -0.120581343770027, -0.048474878072739, -0.158251494169235, -0.043553113937378, 0.005885258316994, -0.081367686390877, 0.078346893191338, 0.022562995553017, 0.020619109272957, 0.017923891544342};
#endif

#endif
